digraph Tree {
node [shape=box, style="filled, rounded", color="black", fontname="helvetica"] ;
edge [fontname="helvetica"] ;
0 [label="Years <= 4.5\nsquared_error = 0.743\nsamples = 157\nvalue = 5.957", fillcolor="#f2c29f"] ;
1 [label="Years <= 2.5\nsquared_error = 0.295\nsamples = 51\nvalue = 5.077", fillcolor="#f9e1d0"] ;
0 -> 1 [labeldistance=2.5, labelangle=45, headlabel="True"] ;
2 [label="Hits <= 92.5\nsquared_error = 0.142\nsamples = 19\nvalue = 4.728", fillcolor="#fbede3"] ;
1 -> 2 ;
3 [label="RBI <= 38.5\nsquared_error = 0.018\nsamples = 8\nvalue = 4.352", fillcolor="#fefbf8"] ;
2 -> 3 ;
4 [label="RBI <= 24.0\nsquared_error = 0.001\nsamples = 6\nvalue = 4.279", fillcolor="#fffdfc"] ;
3 -> 4 ;
5 [label="PutOuts <= 221.0\nsquared_error = 0.0\nsamples = 3\nvalue = 4.251", fillcolor="#fffefe"] ;
4 -> 5 ;
6 [label="Hits <= 59.5\nsquared_error = 0.0\nsamples = 2\nvalue = 4.263", fillcolor="#fffefd"] ;
5 -> 6 ;
7 [label="squared_error = 0.0\nsamples = 1\nvalue = 4.263", fillcolor="#fffefd"] ;
6 -> 7 ;
8 [label="squared_error = 0.0\nsamples = 1\nvalue = 4.263", fillcolor="#fffefd"] ;
6 -> 8 ;
9 [label="squared_error = -0.0\nsamples = 1\nvalue = 4.227", fillcolor="#ffffff"] ;
5 -> 9 ;
10 [label="Walks <= 31.0\nsquared_error = 0.001\nsamples = 3\nvalue = 4.308", fillcolor="#fefcfb"] ;
4 -> 10 ;
11 [label="squared_error = 0.0\nsamples = 2\nvalue = 4.331", fillcolor="#fefbf9"] ;
10 -> 11 ;
12 [label="squared_error = -0.0\nsamples = 1\nvalue = 4.263", fillcolor="#fffefd"] ;
10 -> 12 ;
13 [label="PutOuts <= 542.5\nsquared_error = 0.002\nsamples = 2\nvalue = 4.571", fillcolor="#fdf3ec"] ;
3 -> 13 ;
14 [label="squared_error = 0.0\nsamples = 1\nvalue = 4.615", fillcolor="#fcf1ea"] ;
13 -> 14 ;
15 [label="squared_error = -0.0\nsamples = 1\nvalue = 4.527", fillcolor="#fdf4ee"] ;
13 -> 15 ;
16 [label="Hits <= 122.0\nsquared_error = 0.056\nsamples = 11\nvalue = 5.001", fillcolor="#f9e4d4"] ;
2 -> 16 ;
17 [label="PutOuts <= 186.0\nsquared_error = 0.027\nsamples = 5\nvalue = 4.786", fillcolor="#fbebe0"] ;
16 -> 17 ;
18 [label="Hits <= 102.5\nsquared_error = 0.003\nsamples = 2\nvalue = 4.965", fillcolor="#fae5d6"] ;
17 -> 18 ;
19 [label="squared_error = 0.0\nsamples = 1\nvalue = 5.017", fillcolor="#f9e3d3"] ;
18 -> 19 ;
20 [label="squared_error = -0.0\nsamples = 1\nvalue = 4.913", fillcolor="#fae7d9"] ;
18 -> 20 ;
21 [label="Runs <= 65.5\nsquared_error = 0.008\nsamples = 3\nvalue = 4.667", fillcolor="#fcf0e7"] ;
17 -> 21 ;
22 [label="Years <= 1.5\nsquared_error = 0.0\nsamples = 2\nvalue = 4.603", fillcolor="#fcf2ea"] ;
21 -> 22 ;
23 [label="squared_error = 0.0\nsamples = 1\nvalue = 4.59", fillcolor="#fcf2eb"] ;
22 -> 23 ;
24 [label="squared_error = 0.0\nsamples = 1\nvalue = 4.615", fillcolor="#fcf1ea"] ;
22 -> 24 ;
25 [label="squared_error = -0.0\nsamples = 1\nvalue = 4.796", fillcolor="#fbebe0"] ;
21 -> 25 ;
26 [label="Hits <= 131.0\nsquared_error = 0.009\nsamples = 6\nvalue = 5.18", fillcolor="#f8ddca"] ;
16 -> 26 ;
27 [label="squared_error = 0.0\nsamples = 1\nvalue = 5.316", fillcolor="#f7d9c3"] ;
26 -> 27 ;
28 [label="Runs <= 99.5\nsquared_error = 0.006\nsamples = 5\nvalue = 5.152", fillcolor="#f8decc"] ;
26 -> 28 ;
29 [label="PutOuts <= 228.5\nsquared_error = 0.001\nsamples = 4\nvalue = 5.115", fillcolor="#f9e0ce"] ;
28 -> 29 ;
30 [label="squared_error = 0.0\nsamples = 1\nvalue = 5.153", fillcolor="#f8decc"] ;
29 -> 30 ;
31 [label="PutOuts <= 309.5\nsquared_error = 0.0\nsamples = 3\nvalue = 5.102", fillcolor="#f9e0cf"] ;
29 -> 31 ;
32 [label="squared_error = 0.0\nsamples = 1\nvalue = 5.081", fillcolor="#f9e1d0"] ;
31 -> 32 ;
33 [label="squared_error = 0.0\nsamples = 2\nvalue = 5.112", fillcolor="#f9e0ce"] ;
31 -> 33 ;
34 [label="squared_error = 0.0\nsamples = 1\nvalue = 5.303", fillcolor="#f7d9c3"] ;
28 -> 34 ;
35 [label="Walks <= 22.5\nsquared_error = 0.27\nsamples = 32\nvalue = 5.285", fillcolor="#f7dac5"] ;
1 -> 35 ;
36 [label="RBI <= 20.5\nsquared_error = 0.121\nsamples = 10\nvalue = 4.918", fillcolor="#fae7d9"] ;
35 -> 36 ;
37 [label="RBI <= 17.0\nsquared_error = 0.012\nsamples = 3\nvalue = 5.354", fillcolor="#f7d7c1"] ;
36 -> 37 ;
38 [label="PutOuts <= 99.0\nsquared_error = 0.0\nsamples = 2\nvalue = 5.431", fillcolor="#f6d5bc"] ;
37 -> 38 ;
39 [label="squared_error = 0.0\nsamples = 1\nvalue = 5.421", fillcolor="#f6d5bd"] ;
38 -> 39 ;
40 [label="squared_error = 0.0\nsamples = 1\nvalue = 5.442", fillcolor="#f6d4bc"] ;
38 -> 40 ;
41 [label="squared_error = -0.0\nsamples = 1\nvalue = 5.198", fillcolor="#f8ddc9"] ;
37 -> 41 ;
42 [label="RBI <= 23.5\nsquared_error = 0.051\nsamples = 7\nvalue = 4.731", fillcolor="#fbede3"] ;
36 -> 42 ;
43 [label="squared_error = 0.0\nsamples = 1\nvalue = 4.331", fillcolor="#fefbf9"] ;
42 -> 43 ;
44 [label="Walks <= 17.0\nsquared_error = 0.029\nsamples = 6\nvalue = 4.798", fillcolor="#fbebdf"] ;
42 -> 44 ;
45 [label="PutOuts <= 254.0\nsquared_error = 0.01\nsamples = 2\nvalue = 4.61", fillcolor="#fcf2ea"] ;
44 -> 45 ;
46 [label="squared_error = 0.0\nsamples = 1\nvalue = 4.71", fillcolor="#fbeee4"] ;
45 -> 46 ;
47 [label="squared_error = -0.0\nsamples = 1\nvalue = 4.511", fillcolor="#fdf5ef"] ;
45 -> 47 ;
48 [label="Hits <= 100.0\nsquared_error = 0.012\nsamples = 4\nvalue = 4.892", fillcolor="#fae8da"] ;
44 -> 48 ;
49 [label="Runs <= 37.0\nsquared_error = 0.001\nsamples = 3\nvalue = 4.953", fillcolor="#fae5d7"] ;
48 -> 49 ;
50 [label="RBI <= 29.0\nsquared_error = 0.0\nsamples = 2\nvalue = 4.938", fillcolor="#fae6d8"] ;
49 -> 50 ;
51 [label="squared_error = 0.0\nsamples = 1\nvalue = 4.949", fillcolor="#fae6d7"] ;
50 -> 51 ;
52 [label="squared_error = -0.0\nsamples = 1\nvalue = 4.927", fillcolor="#fae6d8"] ;
50 -> 52 ;
53 [label="squared_error = -0.0\nsamples = 1\nvalue = 4.984", fillcolor="#fae4d5"] ;
49 -> 53 ;
54 [label="squared_error = 0.0\nsamples = 1\nvalue = 4.71", fillcolor="#fbeee4"] ;
48 -> 54 ;
55 [label="Runs <= 86.5\nsquared_error = 0.249\nsamples = 22\nvalue = 5.451", fillcolor="#f6d4bb"] ;
35 -> 55 ;
56 [label="Walks <= 74.0\nsquared_error = 0.214\nsamples = 19\nvalue = 5.363", fillcolor="#f7d7c0"] ;
55 -> 56 ;
57 [label="PutOuts <= 263.5\nsquared_error = 0.187\nsamples = 18\nvalue = 5.318", fillcolor="#f7d9c3"] ;
56 -> 57 ;
58 [label="Hits <= 135.0\nsquared_error = 0.164\nsamples = 13\nvalue = 5.439", fillcolor="#f6d4bc"] ;
57 -> 58 ;
59 [label="RBI <= 55.0\nsquared_error = 0.094\nsamples = 9\nvalue = 5.631", fillcolor="#f5ceb1"] ;
58 -> 59 ;
60 [label="PutOuts <= 217.5\nsquared_error = 0.041\nsamples = 8\nvalue = 5.546", fillcolor="#f5d1b6"] ;
59 -> 60 ;
61 [label="PutOuts <= 92.5\nsquared_error = 0.03\nsamples = 6\nvalue = 5.623", fillcolor="#f5ceb2"] ;
60 -> 61 ;
62 [label="Years <= 3.5\nsquared_error = 0.006\nsamples = 2\nvalue = 5.45", fillcolor="#f6d4bb"] ;
61 -> 62 ;
63 [label="squared_error = 0.0\nsamples = 1\nvalue = 5.375", fillcolor="#f7d7c0"] ;
62 -> 63 ;
64 [label="squared_error = 0.0\nsamples = 1\nvalue = 5.525", fillcolor="#f6d1b7"] ;
62 -> 64 ;
65 [label="Walks <= 43.5\nsquared_error = 0.02\nsamples = 4\nvalue = 5.71", fillcolor="#f4cbad"] ;
61 -> 65 ;
66 [label="Runs <= 32.5\nsquared_error = 0.016\nsamples = 3\nvalue = 5.659", fillcolor="#f5cdb0"] ;
65 -> 66 ;
67 [label="squared_error = 0.0\nsamples = 1\nvalue = 5.832", fillcolor="#f3c7a6"] ;
66 -> 67 ;
68 [label="Hits <= 91.0\nsquared_error = 0.002\nsamples = 2\nvalue = 5.573", fillcolor="#f5d0b5"] ;
66 -> 68 ;
69 [label="squared_error = 0.0\nsamples = 1\nvalue = 5.525", fillcolor="#f6d1b7"] ;
68 -> 69 ;
70 [label="squared_error = 0.0\nsamples = 1\nvalue = 5.62", fillcolor="#f5ceb2"] ;
68 -> 70 ;
71 [label="squared_error = 0.0\nsamples = 1\nvalue = 5.861", fillcolor="#f3c6a5"] ;
65 -> 71 ;
72 [label="PutOuts <= 237.5\nsquared_error = 0.001\nsamples = 2\nvalue = 5.315", fillcolor="#f7d9c3"] ;
60 -> 72 ;
73 [label="squared_error = 0.0\nsamples = 1\nvalue = 5.352", fillcolor="#f7d7c1"] ;
72 -> 73 ;
74 [label="squared_error = 0.0\nsamples = 1\nvalue = 5.278", fillcolor="#f7dac5"] ;
72 -> 74 ;
75 [label="squared_error = -0.0\nsamples = 1\nvalue = 6.312", fillcolor="#f0b68c"] ;
59 -> 75 ;
76 [label="Years <= 3.5\nsquared_error = 0.053\nsamples = 4\nvalue = 5.008", fillcolor="#f9e4d4"] ;
58 -> 76 ;
77 [label="Walks <= 33.0\nsquared_error = 0.018\nsamples = 3\nvalue = 5.123", fillcolor="#f8dfcd"] ;
76 -> 77 ;
78 [label="squared_error = 0.0\nsamples = 1\nvalue = 5.303", fillcolor="#f7d9c3"] ;
77 -> 78 ;
79 [label="RBI <= 77.5\nsquared_error = 0.002\nsamples = 2\nvalue = 5.033", fillcolor="#f9e3d2"] ;
77 -> 79 ;
80 [label="squared_error = 0.0\nsamples = 1\nvalue = 5.081", fillcolor="#f9e1d0"] ;
79 -> 80 ;
81 [label="squared_error = 0.0\nsamples = 1\nvalue = 4.984", fillcolor="#fae4d5"] ;
79 -> 81 ;
82 [label="squared_error = -0.0\nsamples = 1\nvalue = 4.663", fillcolor="#fcf0e7"] ;
76 -> 82 ;
83 [label="RBI <= 47.5\nsquared_error = 0.109\nsamples = 5\nvalue = 5.001", fillcolor="#f9e4d4"] ;
57 -> 83 ;
84 [label="PutOuts <= 370.5\nsquared_error = 0.024\nsamples = 2\nvalue = 4.639", fillcolor="#fcf0e8"] ;
83 -> 84 ;
85 [label="squared_error = 0.0\nsamples = 1\nvalue = 4.483", fillcolor="#fdf6f1"] ;
84 -> 85 ;
86 [label="squared_error = 0.0\nsamples = 1\nvalue = 4.796", fillcolor="#fbebe0"] ;
84 -> 86 ;
87 [label="Runs <= 54.0\nsquared_error = 0.019\nsamples = 3\nvalue = 5.243", fillcolor="#f8dbc7"] ;
83 -> 87 ;
88 [label="squared_error = 0.0\nsamples = 1\nvalue = 5.05", fillcolor="#f9e2d1"] ;
87 -> 88 ;
89 [label="Runs <= 74.0\nsquared_error = 0.001\nsamples = 2\nvalue = 5.339", fillcolor="#f7d8c1"] ;
87 -> 89 ;
90 [label="squared_error = 0.0\nsamples = 1\nvalue = 5.303", fillcolor="#f7d9c3"] ;
89 -> 90 ;
91 [label="squared_error = 0.0\nsamples = 1\nvalue = 5.375", fillcolor="#f7d7c0"] ;
89 -> 91 ;
92 [label="squared_error = 0.0\nsamples = 1\nvalue = 6.176", fillcolor="#f1ba93"] ;
56 -> 92 ;
93 [label="Runs <= 90.5\nsquared_error = 0.106\nsamples = 3\nvalue = 6.01", fillcolor="#f2c09c"] ;
55 -> 93 ;
94 [label="squared_error = 0.0\nsamples = 1\nvalue = 6.463", fillcolor="#efb083"] ;
93 -> 94 ;
95 [label="Hits <= 164.0\nsquared_error = 0.006\nsamples = 2\nvalue = 5.784", fillcolor="#f4c8a9"] ;
93 -> 95 ;
96 [label="squared_error = 0.0\nsamples = 1\nvalue = 5.707", fillcolor="#f4cbad"] ;
95 -> 96 ;
97 [label="squared_error = 0.0\nsamples = 1\nvalue = 5.861", fillcolor="#f3c6a5"] ;
95 -> 97 ;
98 [label="Hits <= 118.0\nsquared_error = 0.407\nsamples = 106\nvalue = 6.381", fillcolor="#efb388"] ;
0 -> 98 [labeldistance=2.5, labelangle=-45, headlabel="False"] ;
99 [label="Years <= 6.5\nsquared_error = 0.345\nsamples = 56\nvalue = 6.017", fillcolor="#f2c09c"] ;
98 -> 99 ;
100 [label="PutOuts <= 953.0\nsquared_error = 0.321\nsamples = 19\nvalue = 5.638", fillcolor="#f5cdb1"] ;
99 -> 100 ;
101 [label="RBI <= 50.0\nsquared_error = 0.278\nsamples = 18\nvalue = 5.695", fillcolor="#f4cbae"] ;
100 -> 101 ;
102 [label="RBI <= 15.0\nsquared_error = 0.25\nsamples = 13\nvalue = 5.511", fillcolor="#f6d2b8"] ;
101 -> 102 ;
103 [label="squared_error = 0.0\nsamples = 1\nvalue = 6.553", fillcolor="#eead7e"] ;
102 -> 103 ;
104 [label="Runs <= 57.5\nsquared_error = 0.173\nsamples = 12\nvalue = 5.425", fillcolor="#f6d5bd"] ;
102 -> 104 ;
105 [label="Runs <= 55.0\nsquared_error = 0.154\nsamples = 10\nvalue = 5.332", fillcolor="#f7d8c2"] ;
104 -> 105 ;
106 [label="RBI <= 31.5\nsquared_error = 0.063\nsamples = 9\nvalue = 5.436", fillcolor="#f6d4bc"] ;
105 -> 106 ;
107 [label="PutOuts <= 144.5\nsquared_error = 0.076\nsamples = 4\nvalue = 5.304", fillcolor="#f7d9c3"] ;
106 -> 107 ;
108 [label="squared_error = 0.0\nsamples = 1\nvalue = 4.875", fillcolor="#fae8db"] ;
107 -> 108 ;
109 [label="RBI <= 23.5\nsquared_error = 0.02\nsamples = 3\nvalue = 5.447", fillcolor="#f6d4bc"] ;
107 -> 109 ;
110 [label="squared_error = 0.0\nsamples = 1\nvalue = 5.252", fillcolor="#f8dbc6"] ;
109 -> 110 ;
111 [label="Runs <= 23.5\nsquared_error = 0.002\nsamples = 2\nvalue = 5.544", fillcolor="#f5d1b6"] ;
109 -> 111 ;
112 [label="squared_error = 0.0\nsamples = 1\nvalue = 5.505", fillcolor="#f6d2b8"] ;
111 -> 112 ;
113 [label="squared_error = 0.0\nsamples = 1\nvalue = 5.583", fillcolor="#f5cfb4"] ;
111 -> 113 ;
114 [label="Walks <= 46.0\nsquared_error = 0.027\nsamples = 5\nvalue = 5.541", fillcolor="#f5d1b6"] ;
106 -> 114 ;
115 [label="Walks <= 15.5\nsquared_error = 0.008\nsamples = 4\nvalue = 5.612", fillcolor="#f5ceb2"] ;
114 -> 115 ;
116 [label="Walks <= 11.0\nsquared_error = 0.0\nsamples = 2\nvalue = 5.52", fillcolor="#f6d1b7"] ;
115 -> 116 ;
117 [label="squared_error = 0.0\nsamples = 1\nvalue = 5.515", fillcolor="#f6d2b8"] ;
116 -> 117 ;
118 [label="squared_error = -0.0\nsamples = 1\nvalue = 5.525", fillcolor="#f6d1b7"] ;
116 -> 118 ;
119 [label="RBI <= 44.0\nsquared_error = 0.0\nsamples = 2\nvalue = 5.703", fillcolor="#f4cbad"] ;
115 -> 119 ;
120 [label="squared_error = 0.0\nsamples = 1\nvalue = 5.699", fillcolor="#f4cbae"] ;
119 -> 120 ;
121 [label="squared_error = 0.0\nsamples = 1\nvalue = 5.707", fillcolor="#f4cbad"] ;
119 -> 121 ;
122 [label="squared_error = 0.0\nsamples = 1\nvalue = 5.257", fillcolor="#f8dbc6"] ;
114 -> 122 ;
123 [label="squared_error = 0.0\nsamples = 1\nvalue = 4.394", fillcolor="#fef9f6"] ;
105 -> 123 ;
124 [label="Walks <= 43.0\nsquared_error = 0.011\nsamples = 2\nvalue = 5.89", fillcolor="#f3c4a3"] ;
104 -> 124 ;
125 [label="squared_error = 0.0\nsamples = 1\nvalue = 5.787", fillcolor="#f4c8a9"] ;
124 -> 125 ;
126 [label="squared_error = 0.0\nsamples = 1\nvalue = 5.994", fillcolor="#f2c19d"] ;
124 -> 126 ;
127 [label="Hits <= 77.5\nsquared_error = 0.033\nsamples = 5\nvalue = 6.173", fillcolor="#f1bb93"] ;
101 -> 127 ;
128 [label="squared_error = 0.0\nsamples = 1\nvalue = 6.509", fillcolor="#eeaf81"] ;
127 -> 128 ;
129 [label="PutOuts <= 415.5\nsquared_error = 0.006\nsamples = 4\nvalue = 6.089", fillcolor="#f1bd98"] ;
127 -> 129 ;
130 [label="RBI <= 72.5\nsquared_error = 0.0\nsamples = 3\nvalue = 6.047", fillcolor="#f2bf9a"] ;
129 -> 130 ;
131 [label="Hits <= 97.5\nsquared_error = 0.0\nsamples = 2\nvalue = 6.054", fillcolor="#f2bf9a"] ;
130 -> 131 ;
132 [label="squared_error = 0.0\nsamples = 1\nvalue = 6.054", fillcolor="#f2bf9a"] ;
131 -> 132 ;
133 [label="squared_error = 0.0\nsamples = 1\nvalue = 6.054", fillcolor="#f2bf9a"] ;
131 -> 133 ;
134 [label="squared_error = 0.0\nsamples = 1\nvalue = 6.031", fillcolor="#f2c09b"] ;
130 -> 134 ;
135 [label="squared_error = 0.0\nsamples = 1\nvalue = 6.217", fillcolor="#f1b991"] ;
129 -> 135 ;
136 [label="squared_error = 0.0\nsamples = 1\nvalue = 4.615", fillcolor="#fcf1ea"] ;
100 -> 136 ;
137 [label="Walks <= 43.5\nsquared_error = 0.245\nsamples = 37\nvalue = 6.212", fillcolor="#f1b991"] ;
99 -> 137 ;
138 [label="PutOuts <= 216.5\nsquared_error = 0.208\nsamples = 29\nvalue = 6.086", fillcolor="#f1be98"] ;
137 -> 138 ;
139 [label="Runs <= 36.5\nsquared_error = 0.182\nsamples = 21\nvalue = 5.952", fillcolor="#f2c2a0"] ;
138 -> 139 ;
140 [label="RBI <= 15.5\nsquared_error = 0.168\nsamples = 15\nvalue = 5.831", fillcolor="#f3c7a6"] ;
139 -> 140 ;
141 [label="squared_error = 0.0\nsamples = 1\nvalue = 6.804", fillcolor="#eca471"] ;
140 -> 141 ;
142 [label="PutOuts <= 71.0\nsquared_error = 0.108\nsamples = 14\nvalue = 5.762", fillcolor="#f4c9aa"] ;
140 -> 142 ;
143 [label="PutOuts <= 24.5\nsquared_error = 0.01\nsamples = 3\nvalue = 6.042", fillcolor="#f2bf9b"] ;
142 -> 143 ;
144 [label="squared_error = 0.0\nsamples = 1\nvalue = 5.903", fillcolor="#f3c4a2"] ;
143 -> 144 ;
145 [label="squared_error = -0.0\nsamples = 2\nvalue = 6.111", fillcolor="#f1bd97"] ;
143 -> 145 ;
146 [label="Runs <= 15.5\nsquared_error = 0.107\nsamples = 11\nvalue = 5.686", fillcolor="#f4ccae"] ;
142 -> 146 ;
147 [label="squared_error = 0.0\nsamples = 1\nvalue = 6.217", fillcolor="#f1b991"] ;
146 -> 147 ;
148 [label="PutOuts <= 136.5\nsquared_error = 0.087\nsamples = 10\nvalue = 5.633", fillcolor="#f5ceb1"] ;
146 -> 148 ;
149 [label="Years <= 12.5\nsquared_error = 0.069\nsamples = 7\nvalue = 5.753", fillcolor="#f4c9ab"] ;
148 -> 149 ;
150 [label="PutOuts <= 118.5\nsquared_error = 0.021\nsamples = 5\nvalue = 5.897", fillcolor="#f3c4a3"] ;
149 -> 150 ;
151 [label="Hits <= 81.5\nsquared_error = 0.005\nsamples = 3\nvalue = 5.995", fillcolor="#f2c19d"] ;
150 -> 151 ;
152 [label="Years <= 9.5\nsquared_error = 0.0\nsamples = 2\nvalue = 6.045", fillcolor="#f2bf9b"] ;
151 -> 152 ;
153 [label="squared_error = 0.0\nsamples = 1\nvalue = 6.054", fillcolor="#f2bf9a"] ;
152 -> 153 ;
154 [label="squared_error = 0.0\nsamples = 1\nvalue = 6.035", fillcolor="#f2bf9b"] ;
152 -> 154 ;
155 [label="squared_error = 0.0\nsamples = 1\nvalue = 5.896", fillcolor="#f3c4a3"] ;
151 -> 155 ;
156 [label="Runs <= 24.5\nsquared_error = 0.008\nsamples = 2\nvalue = 5.749", fillcolor="#f4c9ab"] ;
150 -> 156 ;
157 [label="squared_error = 0.0\nsamples = 1\nvalue = 5.662", fillcolor="#f5cdb0"] ;
156 -> 157 ;
158 [label="squared_error = -0.0\nsamples = 1\nvalue = 5.837", fillcolor="#f3c6a6"] ;
156 -> 158 ;
159 [label="Runs <= 32.5\nsquared_error = 0.008\nsamples = 2\nvalue = 5.394", fillcolor="#f7d6be"] ;
149 -> 159 ;
160 [label="squared_error = 0.0\nsamples = 1\nvalue = 5.485", fillcolor="#f6d3b9"] ;
159 -> 160 ;
161 [label="squared_error = 0.0\nsamples = 1\nvalue = 5.303", fillcolor="#f7d9c3"] ;
159 -> 161 ;
162 [label="Years <= 10.5\nsquared_error = 0.017\nsamples = 3\nvalue = 5.352", fillcolor="#f7d7c1"] ;
148 -> 162 ;
163 [label="squared_error = 0.0\nsamples = 1\nvalue = 5.17", fillcolor="#f8decb"] ;
162 -> 163 ;
164 [label="Years <= 14.5\nsquared_error = 0.0\nsamples = 2\nvalue = 5.442", fillcolor="#f6d4bc"] ;
162 -> 164 ;
165 [label="squared_error = 0.0\nsamples = 1\nvalue = 5.421", fillcolor="#f6d5bd"] ;
164 -> 165 ;
166 [label="squared_error = -0.0\nsamples = 1\nvalue = 5.464", fillcolor="#f6d3bb"] ;
164 -> 166 ;
167 [label="RBI <= 46.0\nsquared_error = 0.089\nsamples = 6\nvalue = 6.254", fillcolor="#f0b88f"] ;
139 -> 167 ;
168 [label="Years <= 16.0\nsquared_error = 0.049\nsamples = 4\nvalue = 6.087", fillcolor="#f1be98"] ;
167 -> 168 ;
169 [label="Runs <= 42.5\nsquared_error = 0.022\nsamples = 3\nvalue = 6.192", fillcolor="#f1ba92"] ;
168 -> 169 ;
170 [label="squared_error = 0.0\nsamples = 1\nvalue = 6.399", fillcolor="#efb387"] ;
169 -> 170 ;
171 [label="PutOuts <= 135.5\nsquared_error = 0.001\nsamples = 2\nvalue = 6.089", fillcolor="#f1bd98"] ;
169 -> 171 ;
172 [label="squared_error = 0.0\nsamples = 1\nvalue = 6.111", fillcolor="#f1bd97"] ;
171 -> 172 ;
173 [label="squared_error = 0.0\nsamples = 1\nvalue = 6.066", fillcolor="#f2be99"] ;
171 -> 173 ;
174 [label="squared_error = -0.0\nsamples = 1\nvalue = 5.771", fillcolor="#f4c9aa"] ;
168 -> 174 ;
175 [label="Runs <= 47.5\nsquared_error = 0.001\nsamples = 2\nvalue = 6.587", fillcolor="#eeac7d"] ;
167 -> 175 ;
176 [label="squared_error = 0.0\nsamples = 1\nvalue = 6.553", fillcolor="#eead7e"] ;
175 -> 176 ;
177 [label="squared_error = -0.0\nsamples = 1\nvalue = 6.621", fillcolor="#eeab7b"] ;
175 -> 177 ;
178 [label="Walks <= 17.0\nsquared_error = 0.105\nsamples = 8\nvalue = 6.439", fillcolor="#efb185"] ;
138 -> 178 ;
179 [label="squared_error = 0.0\nsamples = 1\nvalue = 5.707", fillcolor="#f4cbad"] ;
178 -> 179 ;
180 [label="PutOuts <= 577.5\nsquared_error = 0.033\nsamples = 7\nvalue = 6.544", fillcolor="#eead7f"] ;
178 -> 180 ;
181 [label="RBI <= 57.5\nsquared_error = 0.01\nsamples = 6\nvalue = 6.607", fillcolor="#eeab7b"] ;
180 -> 181 ;
182 [label="RBI <= 30.5\nsquared_error = 0.003\nsamples = 4\nvalue = 6.545", fillcolor="#eead7f"] ;
181 -> 182 ;
183 [label="Years <= 15.5\nsquared_error = 0.001\nsamples = 2\nvalue = 6.593", fillcolor="#eeac7c"] ;
182 -> 183 ;
184 [label="squared_error = 0.0\nsamples = 1\nvalue = 6.564", fillcolor="#eead7e"] ;
183 -> 184 ;
185 [label="squared_error = 0.0\nsamples = 1\nvalue = 6.621", fillcolor="#eeab7b"] ;
183 -> 185 ;
186 [label="Walks <= 33.0\nsquared_error = 0.0\nsamples = 2\nvalue = 6.497", fillcolor="#efaf81"] ;
182 -> 186 ;
187 [label="squared_error = 0.0\nsamples = 1\nvalue = 6.479", fillcolor="#efb083"] ;
186 -> 187 ;
188 [label="squared_error = 0.0\nsamples = 1\nvalue = 6.516", fillcolor="#eeae80"] ;
186 -> 188 ;
189 [label="Walks <= 30.0\nsquared_error = 0.002\nsamples = 2\nvalue = 6.731", fillcolor="#eda775"] ;
181 -> 189 ;
190 [label="squared_error = 0.0\nsamples = 1\nvalue = 6.775", fillcolor="#eca572"] ;
189 -> 190 ;
191 [label="squared_error = 0.0\nsamples = 1\nvalue = 6.686", fillcolor="#eda877"] ;
189 -> 191 ;
192 [label="squared_error = 0.0\nsamples = 1\nvalue = 6.165", fillcolor="#f1bb94"] ;
180 -> 192 ;
193 [label="Walks <= 65.5\nsquared_error = 0.115\nsamples = 8\nvalue = 6.667", fillcolor="#eda978"] ;
137 -> 193 ;
194 [label="Years <= 10.5\nsquared_error = 0.071\nsamples = 6\nvalue = 6.81", fillcolor="#eca470"] ;
193 -> 194 ;
195 [label="Runs <= 40.5\nsquared_error = 0.024\nsamples = 3\nvalue = 6.575", fillcolor="#eeac7d"] ;
194 -> 195 ;
196 [label="squared_error = 0.0\nsamples = 1\nvalue = 6.775", fillcolor="#eca572"] ;
195 -> 196 ;
197 [label="Hits <= 81.5\nsquared_error = 0.006\nsamples = 2\nvalue = 6.476", fillcolor="#efb083"] ;
195 -> 197 ;
198 [label="squared_error = 0.0\nsamples = 1\nvalue = 6.553", fillcolor="#eead7e"] ;
197 -> 198 ;
199 [label="squared_error = 0.0\nsamples = 1\nvalue = 6.399", fillcolor="#efb387"] ;
197 -> 199 ;
200 [label="PutOuts <= 332.0\nsquared_error = 0.008\nsamples = 3\nvalue = 7.044", fillcolor="#eb9c63"] ;
194 -> 200 ;
201 [label="PutOuts <= 20.5\nsquared_error = 0.001\nsamples = 2\nvalue = 6.981", fillcolor="#eb9e67"] ;
200 -> 201 ;
202 [label="squared_error = -0.0\nsamples = 1\nvalue = 7.004", fillcolor="#eb9d65"] ;
201 -> 202 ;
203 [label="squared_error = 0.0\nsamples = 1\nvalue = 6.957", fillcolor="#eb9f68"] ;
201 -> 203 ;
204 [label="squared_error = -0.0\nsamples = 1\nvalue = 7.171", fillcolor="#ea975c"] ;
200 -> 204 ;
205 [label="Walks <= 79.0\nsquared_error = 0.002\nsamples = 2\nvalue = 6.238", fillcolor="#f0b890"] ;
193 -> 205 ;
206 [label="squared_error = 0.0\nsamples = 1\nvalue = 6.284", fillcolor="#f0b78d"] ;
205 -> 206 ;
207 [label="squared_error = -0.0\nsamples = 1\nvalue = 6.191", fillcolor="#f1ba92"] ;
205 -> 207 ;
208 [label="PutOuts <= 857.5\nsquared_error = 0.163\nsamples = 50\nvalue = 6.788", fillcolor="#eca571"] ;
98 -> 208 ;
209 [label="Walks <= 67.0\nsquared_error = 0.12\nsamples = 42\nvalue = 6.699", fillcolor="#eda876"] ;
208 -> 209 ;
210 [label="Years <= 6.5\nsquared_error = 0.082\nsamples = 31\nvalue = 6.614", fillcolor="#eeab7b"] ;
209 -> 210 ;
211 [label="RBI <= 45.5\nsquared_error = 0.037\nsamples = 10\nvalue = 6.379", fillcolor="#efb388"] ;
210 -> 211 ;
212 [label="squared_error = 0.0\nsamples = 1\nvalue = 5.956", fillcolor="#f2c29f"] ;
211 -> 212 ;
213 [label="PutOuts <= 306.0\nsquared_error = 0.019\nsamples = 9\nvalue = 6.426", fillcolor="#efb285"] ;
211 -> 213 ;
214 [label="RBI <= 55.0\nsquared_error = 0.01\nsamples = 5\nvalue = 6.34", fillcolor="#f0b58a"] ;
213 -> 214 ;
215 [label="squared_error = 0.0\nsamples = 1\nvalue = 6.165", fillcolor="#f1bb94"] ;
214 -> 215 ;
216 [label="RBI <= 78.0\nsquared_error = 0.003\nsamples = 4\nvalue = 6.384", fillcolor="#efb388"] ;
214 -> 216 ;
217 [label="Years <= 5.5\nsquared_error = 0.0\nsamples = 2\nvalue = 6.334", fillcolor="#f0b58b"] ;
216 -> 217 ;
218 [label="squared_error = 0.0\nsamples = 1\nvalue = 6.356", fillcolor="#f0b489"] ;
217 -> 218 ;
219 [label="squared_error = -0.0\nsamples = 1\nvalue = 6.312", fillcolor="#f0b68c"] ;
217 -> 219 ;
220 [label="Hits <= 176.0\nsquared_error = 0.0\nsamples = 2\nvalue = 6.433", fillcolor="#efb185"] ;
216 -> 220 ;
221 [label="squared_error = 0.0\nsamples = 1\nvalue = 6.419", fillcolor="#efb286"] ;
220 -> 221 ;
222 [label="squared_error = -0.0\nsamples = 1\nvalue = 6.447", fillcolor="#efb184"] ;
220 -> 222 ;
223 [label="PutOuts <= 591.5\nsquared_error = 0.01\nsamples = 4\nvalue = 6.533", fillcolor="#eeae7f"] ;
213 -> 223 ;
224 [label="Walks <= 41.5\nsquared_error = 0.001\nsamples = 3\nvalue = 6.59", fillcolor="#eeac7c"] ;
223 -> 224 ;
225 [label="squared_error = 0.0\nsamples = 1\nvalue = 6.553", fillcolor="#eead7e"] ;
224 -> 225 ;
226 [label="Years <= 5.5\nsquared_error = 0.0\nsamples = 2\nvalue = 6.608", fillcolor="#eeab7b"] ;
224 -> 226 ;
227 [label="squared_error = 0.0\nsamples = 1\nvalue = 6.608", fillcolor="#eeab7b"] ;
226 -> 227 ;
228 [label="squared_error = 0.0\nsamples = 1\nvalue = 6.608", fillcolor="#eeab7b"] ;
226 -> 228 ;
229 [label="squared_error = -0.0\nsamples = 1\nvalue = 6.365", fillcolor="#efb489"] ;
223 -> 229 ;
230 [label="Runs <= 55.0\nsquared_error = 0.064\nsamples = 21\nvalue = 6.726", fillcolor="#eda775"] ;
210 -> 230 ;
231 [label="RBI <= 57.0\nsquared_error = 0.026\nsamples = 5\nvalue = 6.491", fillcolor="#efaf82"] ;
230 -> 231 ;
232 [label="Walks <= 37.5\nsquared_error = 0.0\nsamples = 3\nvalue = 6.616", fillcolor="#eeab7b"] ;
231 -> 232 ;
233 [label="squared_error = 0.0\nsamples = 1\nvalue = 6.605", fillcolor="#eeab7c"] ;
232 -> 233 ;
234 [label="Years <= 9.5\nsquared_error = 0.0\nsamples = 2\nvalue = 6.621", fillcolor="#eeab7b"] ;
232 -> 234 ;
235 [label="squared_error = 0.0\nsamples = 1\nvalue = 6.621", fillcolor="#eeab7b"] ;
234 -> 235 ;
236 [label="squared_error = 0.0\nsamples = 1\nvalue = 6.621", fillcolor="#eeab7b"] ;
234 -> 236 ;
237 [label="Hits <= 132.0\nsquared_error = 0.008\nsamples = 2\nvalue = 6.303", fillcolor="#f0b68c"] ;
231 -> 237 ;
238 [label="squared_error = 0.0\nsamples = 1\nvalue = 6.39", fillcolor="#efb387"] ;
237 -> 238 ;
239 [label="squared_error = 0.0\nsamples = 1\nvalue = 6.217", fillcolor="#f1b991"] ;
237 -> 239 ;
240 [label="RBI <= 72.5\nsquared_error = 0.053\nsamples = 16\nvalue = 6.8", fillcolor="#eca471"] ;
230 -> 240 ;
241 [label="Walks <= 37.0\nsquared_error = 0.03\nsamples = 9\nvalue = 6.896", fillcolor="#eca16b"] ;
240 -> 241 ;
242 [label="PutOuts <= 125.5\nsquared_error = 0.014\nsamples = 5\nvalue = 6.775", fillcolor="#eda572"] ;
241 -> 242 ;
243 [label="squared_error = 0.0\nsamples = 1\nvalue = 6.909", fillcolor="#eca16b"] ;
242 -> 243 ;
244 [label="Walks <= 32.5\nsquared_error = 0.013\nsamples = 4\nvalue = 6.742", fillcolor="#eda774"] ;
242 -> 244 ;
245 [label="Hits <= 144.5\nsquared_error = 0.004\nsamples = 2\nvalue = 6.842", fillcolor="#eca36e"] ;
244 -> 245 ;
246 [label="squared_error = 0.0\nsamples = 1\nvalue = 6.775", fillcolor="#eca572"] ;
245 -> 246 ;
247 [label="squared_error = 0.0\nsamples = 1\nvalue = 6.909", fillcolor="#eca16b"] ;
245 -> 247 ;
248 [label="PutOuts <= 296.0\nsquared_error = 0.0\nsamples = 2\nvalue = 6.641", fillcolor="#edaa7a"] ;
244 -> 248 ;
249 [label="squared_error = 0.0\nsamples = 1\nvalue = 6.621", fillcolor="#eeab7b"] ;
248 -> 249 ;
250 [label="squared_error = -0.0\nsamples = 1\nvalue = 6.661", fillcolor="#eda978"] ;
248 -> 250 ;
251 [label="Years <= 11.0\nsquared_error = 0.007\nsamples = 4\nvalue = 7.047", fillcolor="#eb9c63"] ;
241 -> 251 ;
252 [label="Hits <= 135.0\nsquared_error = 0.001\nsamples = 3\nvalue = 7.093", fillcolor="#ea9a61"] ;
251 -> 252 ;
253 [label="squared_error = 0.0\nsamples = 1\nvalue = 7.14", fillcolor="#ea995e"] ;
252 -> 253 ;
254 [label="Years <= 8.0\nsquared_error = 0.0\nsamples = 2\nvalue = 7.07", fillcolor="#ea9b62"] ;
252 -> 254 ;
255 [label="squared_error = 0.0\nsamples = 1\nvalue = 7.048", fillcolor="#eb9c63"] ;
254 -> 255 ;
256 [label="squared_error = 0.0\nsamples = 1\nvalue = 7.091", fillcolor="#ea9a61"] ;
254 -> 256 ;
257 [label="squared_error = -0.0\nsamples = 1\nvalue = 6.909", fillcolor="#eca16b"] ;
251 -> 257 ;
258 [label="RBI <= 79.5\nsquared_error = 0.057\nsamples = 7\nvalue = 6.676", fillcolor="#eda978"] ;
240 -> 258 ;
259 [label="squared_error = 0.0\nsamples = 1\nvalue = 6.275", fillcolor="#f0b78e"] ;
258 -> 259 ;
260 [label="Hits <= 129.5\nsquared_error = 0.035\nsamples = 6\nvalue = 6.743", fillcolor="#eda674"] ;
258 -> 260 ;
261 [label="squared_error = 0.0\nsamples = 1\nvalue = 6.378", fillcolor="#efb388"] ;
260 -> 261 ;
262 [label="RBI <= 87.0\nsquared_error = 0.009\nsamples = 5\nvalue = 6.816", fillcolor="#eca470"] ;
260 -> 262 ;
263 [label="squared_error = 0.0\nsamples = 1\nvalue = 6.67", fillcolor="#eda978"] ;
262 -> 263 ;
264 [label="Hits <= 135.0\nsquared_error = 0.005\nsamples = 4\nvalue = 6.853", fillcolor="#eca36e"] ;
262 -> 264 ;
265 [label="squared_error = 0.0\nsamples = 1\nvalue = 6.746", fillcolor="#eda674"] ;
264 -> 265 ;
266 [label="RBI <= 105.0\nsquared_error = 0.002\nsamples = 3\nvalue = 6.888", fillcolor="#eca16c"] ;
264 -> 266 ;
267 [label="squared_error = -0.0\nsamples = 2\nvalue = 6.858", fillcolor="#eca26e"] ;
266 -> 267 ;
268 [label="squared_error = -0.0\nsamples = 1\nvalue = 6.95", fillcolor="#eb9f68"] ;
266 -> 268 ;
269 [label="Hits <= 159.0\nsquared_error = 0.149\nsamples = 11\nvalue = 6.938", fillcolor="#eba069"] ;
209 -> 269 ;
270 [label="Walks <= 81.5\nsquared_error = 0.096\nsamples = 6\nvalue = 6.729", fillcolor="#eda775"] ;
269 -> 270 ;
271 [label="PutOuts <= 101.0\nsquared_error = 0.078\nsamples = 3\nvalue = 6.933", fillcolor="#eba069"] ;
270 -> 271 ;
272 [label="squared_error = 0.0\nsamples = 1\nvalue = 7.314", fillcolor="#e99254"] ;
271 -> 272 ;
273 [label="Hits <= 149.5\nsquared_error = 0.008\nsamples = 2\nvalue = 6.743", fillcolor="#eda674"] ;
271 -> 273 ;
274 [label="squared_error = 0.0\nsamples = 1\nvalue = 6.831", fillcolor="#eca36f"] ;
273 -> 274 ;
275 [label="squared_error = 0.0\nsamples = 1\nvalue = 6.654", fillcolor="#edaa79"] ;
273 -> 275 ;
276 [label="Runs <= 74.5\nsquared_error = 0.031\nsamples = 3\nvalue = 6.525", fillcolor="#eeae80"] ;
270 -> 276 ;
277 [label="PutOuts <= 184.0\nsquared_error = 0.003\nsamples = 2\nvalue = 6.646", fillcolor="#edaa79"] ;
276 -> 277 ;
278 [label="squared_error = 0.0\nsamples = 1\nvalue = 6.588", fillcolor="#eeac7c"] ;
277 -> 278 ;
279 [label="squared_error = -0.0\nsamples = 1\nvalue = 6.704", fillcolor="#eda876"] ;
277 -> 279 ;
280 [label="squared_error = -0.0\nsamples = 1\nvalue = 6.284", fillcolor="#f0b78d"] ;
276 -> 280 ;
281 [label="RBI <= 62.5\nsquared_error = 0.098\nsamples = 5\nvalue = 7.189", fillcolor="#e9975b"] ;
269 -> 281 ;
282 [label="squared_error = 0.0\nsamples = 1\nvalue = 6.641", fillcolor="#edaa7a"] ;
281 -> 282 ;
283 [label="Hits <= 166.5\nsquared_error = 0.029\nsamples = 4\nvalue = 7.325", fillcolor="#e99254"] ;
281 -> 283 ;
284 [label="RBI <= 78.5\nsquared_error = 0.004\nsamples = 2\nvalue = 7.486", fillcolor="#e78c4b"] ;
283 -> 284 ;
285 [label="squared_error = 0.0\nsamples = 1\nvalue = 7.421", fillcolor="#e88f4e"] ;
284 -> 285 ;
286 [label="squared_error = 0.0\nsamples = 1\nvalue = 7.55", fillcolor="#e78a47"] ;
284 -> 286 ;
287 [label="Hits <= 173.5\nsquared_error = 0.002\nsamples = 2\nvalue = 7.165", fillcolor="#ea985d"] ;
283 -> 287 ;
288 [label="squared_error = 0.0\nsamples = 1\nvalue = 7.122", fillcolor="#ea995f"] ;
287 -> 288 ;
289 [label="squared_error = -0.0\nsamples = 1\nvalue = 7.209", fillcolor="#e9965a"] ;
287 -> 289 ;
290 [label="Walks <= 47.0\nsquared_error = 0.128\nsamples = 8\nvalue = 7.258", fillcolor="#e99457"] ;
208 -> 290 ;
291 [label="PutOuts <= 1113.5\nsquared_error = 0.065\nsamples = 3\nvalue = 6.951", fillcolor="#eb9f68"] ;
290 -> 291 ;
292 [label="Hits <= 150.0\nsquared_error = 0.017\nsamples = 2\nvalue = 6.787", fillcolor="#eca571"] ;
291 -> 292 ;
293 [label="squared_error = 0.0\nsamples = 1\nvalue = 6.917", fillcolor="#eba06a"] ;
292 -> 293 ;
294 [label="squared_error = -0.0\nsamples = 1\nvalue = 6.656", fillcolor="#edaa79"] ;
292 -> 294 ;
295 [label="squared_error = 0.0\nsamples = 1\nvalue = 7.28", fillcolor="#e99456"] ;
291 -> 295 ;
296 [label="PutOuts <= 1113.5\nsquared_error = 0.075\nsamples = 5\nvalue = 7.442", fillcolor="#e88e4d"] ;
290 -> 296 ;
297 [label="Years <= 11.5\nsquared_error = 0.015\nsamples = 2\nvalue = 7.686", fillcolor="#e68540"] ;
296 -> 297 ;
298 [label="squared_error = 0.0\nsamples = 1\nvalue = 7.808", fillcolor="#e58139"] ;
297 -> 298 ;
299 [label="squared_error = 0.0\nsamples = 1\nvalue = 7.563", fillcolor="#e78a47"] ;
297 -> 299 ;
300 [label="Runs <= 112.0\nsquared_error = 0.05\nsamples = 3\nvalue = 7.279", fillcolor="#e99456"] ;
296 -> 300 ;
301 [label="Runs <= 86.5\nsquared_error = 0.002\nsamples = 2\nvalue = 7.124", fillcolor="#ea995f"] ;
300 -> 301 ;
302 [label="squared_error = 0.0\nsamples = 1\nvalue = 7.077", fillcolor="#ea9b61"] ;
301 -> 302 ;
303 [label="squared_error = 0.0\nsamples = 1\nvalue = 7.171", fillcolor="#ea975c"] ;
301 -> 303 ;
304 [label="squared_error = 0.0\nsamples = 1\nvalue = 7.589", fillcolor="#e78945"] ;
300 -> 304 ;
}